{"learner":{"attributes":{"best_iteration":"14","best_score":"0.09170508188630595","scikit_learn":"{\"_estimator_type\": \"classifier\"}"},"feature_names":[],"feature_types":[],"gradient_booster":{"model":{"cats":{"enc":[],"feature_segments":[],"sorted_idx":[]},"gbtree_model_param":{"num_parallel_tree":"1","num_trees":"45"},"iteration_indptr":[0,1,2,3,4,5,6,7,8,9,10,11,12,13,14,15,16,17,18,19,20,21,22,23,24,25,26,27,28,29,30,31,32,33,34,35,36,37,38,39,40,41,42,43,44,45],"tree_info":[0,0,0,0,0,0,0,0,0,0,0,0,0,0,0,0,0,0,0,0,0,0,0,0,0,0,0,0,0,0,0,0,0,0,0,0,0,0,0,0,0,0,0,0,0],"trees":[{"base_weights":[-3.587712E-2,-6.843144E-1,8.431333E-1,-3.2550701E-1,-1.8895978E0,-1.4441267E0,9.172229E-1,-2.067767E-2,2.2855839E-2,-5.9930306E-2,1.4786521E-3,-5.921981E-2,3.4981225E-2,3.0111164E-2,-1.9721087E-2],"categories":[],"categories_nodes":[],"categories_segments":[],"categories_sizes":[],"default_left":[0,0,0,0,0,0,0,0,0,0,0,0,0,0,0],"id":0,"left_children":[1,3,5,7,9,11,13,-1,-1,-1,-1,-1,-1,-1,-1],"loss_changes":[4.1214014E3,1.7987239E3,5.214509E2,1.2693188E3,2.002732E2,1.3606364E2,4.056682E2,0E0,0E0,0E0,0E0,0E0,0E0,0E0,0E0],"parents":[2147483647,0,0,1,1,2,2,3,3,4,4,5,5,6,6],"right_children":[2,4,6,8,10,12,14,-1,-1,-1,-1,-1,-1,-1,-1],"split_conditions":[3.3376718E-1,1.7129873E-1,-8.812615E-1,5.6311613E-1,1.2054719E0,1.9377567E0,3.9558132E0,-2.067767E-2,2.2855839E-2,-5.9930306E-2,1.4786521E-3,-5.921981E-2,3.4981225E-2,3.0111164E-2,-1.9721087E-2],"split_indices":[22,35,30,31,31,21,71,0,0,0,0,0,0,0,0],"split_type":[0,0,0,0,0,0,0,0,0,0,0,0,0,0,0],"sum_hessian":[7.228759E3,4.1601743E3,3.0685842E3,3.2068596E3,9.5331464E2,9.56573E1,2.972927E3,2.4033455E3,8.0351404E2,9.03E2,5.0314606E1,7.975E1,1.5907304E1,2.8185479E3,1.5437921E2],"tree_param":{"num_deleted":"0","num_feature":"77","num_nodes":"15","size_leaf_vector":"1"}},{"base_weights":[-5.3406036E-3,-8.2132316E-1,5.7986873E-1,-1.1463715E0,4.16069E-1,1.7031713E-1,1.2202624E0,-4.899711E-3,-4.217273E-2,3.105042E-2,-1.992236E-2,2.1003772E-2,-6.2523154E-3,-2.0424983E-2,3.941734E-2],"categories":[],"categories_nodes":[],"categories_segments":[],"categories_sizes":[],"default_left":[0,0,0,0,0,0,0,0,0,0,0,0,0,0,0],"id":1,"left_children":[1,3,5,7,9,11,13,-1,-1,-1,-1,-1,-1,-1,-1],"loss_changes":[3.5126536E3,1.2362666E3,1.1231515E3,6.201223E2,4.2848236E2,5.247031E2,2.983977E2,0E0,0E0,0E0,0E0,0E0,0E0,0E0,0E0],"parents":[2147483647,0,0,1,1,2,2,3,3,4,4,5,5,6,6],"right_children":[2,4,6,8,10,12,14,-1,-1,-1,-1,-1,-1,-1,-1],"split_conditions":[-1.1526617E-1,6.516501E-1,2.9772446E-1,-6.728507E-1,-3.9497304E-1,-2.8106135E-1,-6.936089E-1,-4.899711E-3,-4.217273E-2,3.105042E-2,-1.992236E-2,2.1003772E-2,-6.2523154E-3,-2.0424983E-2,3.941734E-2],"split_indices":[10,30,30,40,41,46,37,0,0,0,0,0,0,0,0],"split_type":[0,0,0,0,0,0,0,0,0,0,0,0,0,0,0],"sum_hessian":[7.3539775E3,3.0712996E3,4.2826777E3,2.4324722E3,6.3882733E2,2.6130034E3,1.6696744E3,5.082544E2,1.9242179E3,4.0620093E2,2.3262643E2,1.0889991E3,1.5240043E3,7.804326E1,1.5916312E3],"tree_param":{"num_deleted":"0","num_feature":"77","num_nodes":"15","size_leaf_vector":"1"}},{"base_weights":[-7.7705644E-3,2.7285543E-1,-1.7645956E0,-6.904334E-2,1.1091498E0,-5.7314202E-2,-3.5790852E-1,1.7882848E-2,-1.178571E-2,3.761215E-2,-1.2058601E-2,2.573482E-2,-5.7799354E-2],"categories":[],"categories_nodes":[],"categories_segments":[],"categories_sizes":[],"default_left":[0,0,0,0,0,0,0,0,0,0,0,0,0],"id":2,"left_children":[1,3,5,7,9,-1,11,-1,-1,-1,-1,-1,-1],"loss_changes":[3.604785E3,1.8027883E3,2.057478E2,9.6421497E2,4.0033862E2,0E0,1.8469522E2,0E0,0E0,0E0,0E0,0E0,0E0],"parents":[2147483647,0,0,1,1,2,2,3,3,4,4,6,6],"right_children":[2,4,6,8,10,-1,12,-1,-1,-1,-1,-1,-1],"split_conditions":[1.7129873E-1,6.311546E-1,7.536805E-1,-5.228984E-1,9.9187404E-2,-5.7314202E-2,9.673983E-1,1.7882848E-2,-1.178571E-2,3.761215E-2,-1.2058601E-2,2.573482E-2,-5.7799354E-2],"split_indices":[35,31,32,41,42,0,32,0,0,0,0,0,0],"split_type":[0,0,0,0,0,0,0,0,0,0,0,0,0],"sum_hessian":[7.3094976E3,6.3034116E3,1.006086E3,4.474797E3,1.8286149E3,9.111661E2,9.491995E1,1.4648114E3,3.0099854E3,1.669141E3,1.5947389E2,5.36961E1,4.122385E1],"tree_param":{"num_deleted":"0","num_feature":"77","num_nodes":"13","size_leaf_vector":"1"}},{"base_weights":[1.5672328E-2,-9.3255645E-1,6.0686266E-1,-1.1782159E0,1.0050386E0,2.8263673E-1,1.2248741E0,1.4080188E-2,-4.6262804E-2,3.922948E-2,-5.7589605E-2,-5.5648484E-3,2.406366E-2,-5.9887096E-2,3.869543E-2],"categories":[],"categories_nodes":[],"categories_segments":[],"categories_sizes":[],"default_left":[0,0,0,0,0,0,0,0,0,0,0,0,0,0,0],"id":3,"left_children":[1,3,5,7,9,11,13,-1,-1,-1,-1,-1,-1,-1,-1],"loss_changes":[4.15949E3,1.3575176E3,9.153187E2,1.5172026E3,2.8665076E2,7.295758E2,3.315686E2,0E0,0E0,0E0,0E0,0E0,0E0,0E0,0E0],"parents":[2147483647,0,0,1,1,2,2,3,3,4,4,5,5,6,6],"right_children":[2,4,6,8,10,12,14,-1,-1,-1,-1,-1,-1,-1,-1],"split_conditions":[-1.2269332E-1,1.2054719E0,6.311546E-1,-5.8880794E-1,8.816547E-2,7.192119E-1,-2.8161007E-1,1.4080188E-2,-4.6262804E-2,3.922948E-2,-5.7589605E-2,-5.5648484E-3,2.406366E-2,-5.9887096E-2,3.869543E-2],"split_indices":[22,31,31,35,42,22,53,0,0,0,0,0,0,0,0],"split_type":[0,0,0,0,0,0,0,0,0,0,0,0,0,0,0],"sum_hessian":[7.4179756E3,2.8484731E3,4.5695024E3,2.5283572E3,3.201161E2,2.998189E3,1.5713137E3,4.5728943E2,2.0710676E3,2.9063217E2,2.948392E1,1.5772805E3,1.4209084E3,3.045035E1,1.5408633E3],"tree_param":{"num_deleted":"0","num_feature":"77","num_nodes":"15","size_leaf_vector":"1"}},{"base_weights":[2.2967461E-2,-8.093714E-1,6.0389054E-1,6.3168204E-1,-1.1351621E0,3.00164E-1,1.2032275E0,2.571971E-2,-5.892823E-2,-4.3309923E-2,2.3860276E-2,-2.6788024E-4,2.7143463E-2,-5.6239694E-2,3.738045E-2],"categories":[],"categories_nodes":[],"categories_segments":[],"categories_sizes":[],"default_left":[0,0,0,0,0,0,0,0,0,0,0,0,0,0,0],"id":4,"left_children":[1,3,5,7,9,11,13,-1,-1,-1,-1,-1,-1,-1,-1],"loss_changes":[3.584166E3,1.4312357E3,7.941974E2,3.3100787E2,1.4814883E3,5.4184155E2,1.9558374E2,0E0,0E0,0E0,0E0,0E0,0E0,0E0,0E0],"parents":[2147483647,0,0,1,1,2,2,3,3,4,4,5,5,6,6],"right_children":[2,4,6,8,10,12,14,-1,-1,-1,-1,-1,-1,-1,-1],"split_conditions":[-7.727559E-2,-5.8880794E-1,1.4739599E0,-4.1242197E-1,1.0217459E0,3.246617E-1,-1.0025263E0,2.571971E-2,-5.892823E-2,-4.3309923E-2,2.3860276E-2,-2.6788024E-4,2.7143463E-2,-5.6239694E-2,3.738045E-2],"split_indices":[22,35,22,49,31,30,30,0,0,0,0,0,0,0,0],"split_type":[0,0,0,0,0,0,0,0,0,0,0,0,0,0,0],"sum_hessian":[7.410611E3,3.0459084E3,4.3647026E3,5.614093E2,2.484499E3,2.897833E3,1.4668695E3,5.1716534E2,4.4243965E1,2.1424338E3,3.4206522E2,1.9180869E3,9.797461E2,1.9493156E1,1.4473763E3],"tree_param":{"num_deleted":"0","num_feature":"77","num_nodes":"15","size_leaf_vector":"1"}},{"base_weights":[1.236404E-2,-5.8706045E-1,7.993494E-1,-9.0944624E-1,5.9574705E-1,4.477923E-1,1.1982989E0,7.476781E-3,-3.4499496E-2,2.6583014E-2,-2.6994923E-2,-1.8178498E-2,1.9994006E-2,-5.725002E-2,3.7293974E-2],"categories":[],"categories_nodes":[],"categories_segments":[],"categories_sizes":[],"default_left":[0,0,0,0,0,0,0,0,0,0,0,0,0,0,0],"id":5,"left_children":[1,3,5,7,9,11,13,-1,-1,-1,-1,-1,-1,-1,-1],"loss_changes":[3.4967324E3,1.6049907E3,4.4879297E2,9.219983E2,3.9236298E2,3.9336893E2,2.112998E2,0E0,0E0,0E0,0E0,0E0,0E0,0E0,0E0],"parents":[2147483647,0,0,1,1,2,2,3,3,4,4,5,5,6,6],"right_children":[2,4,6,8,10,12,14,-1,-1,-1,-1,-1,-1,-1,-1],"split_conditions":[3.3376718E-1,6.311546E-1,1.4739599E0,-5.8880794E-1,-3.424139E-2,-3.103841E-1,-1.5932649E0,7.476781E-3,-3.4499496E-2,2.6583014E-2,-2.6994923E-2,-1.8178498E-2,1.9994006E-2,-5.725002E-2,3.7293974E-2],"split_indices":[22,31,22,35,44,30,34,0,0,0,0,0,0,0,0],"split_type":[0,0,0,0,0,0,0,0,0,0,0,0,0,0,0],"sum_hessian":[7.410402E3,4.206532E3,3.2038696E3,3.3058154E3,9.007168E2,1.704354E3,1.4995156E3,5.682226E2,2.7375928E3,7.546772E2,1.4603963E2,2.9252335E2,1.4118306E3,2.0709448E1,1.4788062E3],"tree_param":{"num_deleted":"0","num_feature":"77","num_nodes":"15","size_leaf_vector":"1"}},{"base_weights":[6.4912583E-3,-5.669312E-1,7.6595294E-1,-2.4404863E-1,-1.6712306E0,-2.8310412E-1,9.1114724E-1,1.740736E-2,-1.7355822E-2,-5.2941438E-2,1.2136382E-3,-5.993021E-2,1.7326728E-2,-5.8173917E-2,2.8406374E-2],"categories":[],"categories_nodes":[],"categories_segments":[],"categories_sizes":[],"default_left":[0,0,0,0,0,0,0,0,0,0,0,0,0,0,0],"id":6,"left_children":[1,3,5,7,9,11,13,-1,-1,-1,-1,-1,-1,-1,-1],"loss_changes":[3.1785757E3,1.482216E3,4.7860962E2,8.878616E2,1.5075562E2,5.656541E2,2.826931E2,0E0,0E0,0E0,0E0,0E0,0E0,0E0,0E0],"parents":[2147483647,0,0,1,1,2,2,3,3,4,4,5,5,6,6],"right_children":[2,4,6,8,10,12,14,-1,-1,-1,-1,-1,-1,-1,-1],"split_conditions":[3.3376718E-1,1.7129873E-1,-2.2827898E-1,-5.228984E-1,1.2054719E0,-2.5772363E-1,-1.5932649E0,1.740736E-2,-1.7355822E-2,-5.2941438E-2,1.2136382E-3,-5.993021E-2,1.7326728E-2,-5.8173917E-2,2.8406374E-2],"split_indices":[22,35,31,41,31,4,34,0,0,0,0,0,0,0,0],"split_type":[0,0,0,0,0,0,0,0,0,0,0,0,0,0,0],"sum_hessian":[7.2967666E3,4.157681E3,3.1390854E3,3.218071E3,9.396099E2,3.8144354E2,2.7576418E3,9.2859503E2,2.289476E3,8.909765E2,4.8633423E1,1.2707863E2,2.5436491E2,3.3448425E1,2.7241936E3],"tree_param":{"num_deleted":"0","num_feature":"77","num_nodes":"15","size_leaf_vector":"1"}},{"base_weights":[1.7737435E-2,2.7179956E-1,-1.6067026E0,-8.6372174E-2,1.0679934E0,-5.2235916E-2,-3.264419E-1,-2.0902388E-2,8.456493E-3,-5.9312448E-2,3.41351E-2,-5.2916918E-2,2.4638636E-2],"categories":[],"categories_nodes":[],"categories_segments":[],"categories_sizes":[],"default_left":[0,0,0,0,0,0,0,0,0,0,0,0,0],"id":7,"left_children":[1,3,5,7,9,-1,11,-1,-1,-1,-1,-1,-1],"loss_changes":[3.0398943E3,1.816691E3,1.707561E2,9.8794653E2,4.225359E2,0E0,1.5993193E2,0E0,0E0,0E0,0E0,0E0,0E0],"parents":[2147483647,0,0,1,1,2,2,3,3,4,4,6,6],"right_children":[2,4,6,8,10,-1,12,-1,-1,-1,-1,-1,-1],"split_conditions":[1.7129873E-1,6.311546E-1,4.2849336E0,-1.6862041E-1,-2.8161007E-1,-5.2235916E-2,2.6754138E-1,-2.0902388E-2,8.456493E-3,-5.9312448E-2,3.41351E-2,-5.2916918E-2,2.4638636E-2],"split_indices":[35,31,33,9,53,0,23,0,0,0,0,0,0],"split_type":[0,0,0,0,0,0,0,0,0,0,0,0,0],"sum_hessian":[7.3639795E3,6.368795E3,9.9518427E2,4.3932397E3,1.975555E3,9.001799E2,9.500436E1,1.6529294E3,2.7403105E3,4.365191E1,1.9319031E3,4.1978874E1,5.3025482E1],"tree_param":{"num_deleted":"0","num_feature":"77","num_nodes":"13","size_leaf_vector":"1"}},{"base_weights":[1.6148403E-2,2.6720852E-1,-1.6174765E0,-1.1046993E-1,8.8898665E-1,-1.6624911E0,3.9643794E-2,-2.0843713E-2,1.5035562E-2,-5.706982E-2,2.8590435E-2,-5.1248852E-2,-1.905269E-2],"categories":[],"categories_nodes":[],"categories_segments":[],"categories_sizes":[],"default_left":[0,0,0,0,0,0,0,0,0,0,0,0,0],"id":8,"left_children":[1,3,5,7,9,11,-1,-1,-1,-1,-1,-1,-1],"loss_changes":[3.0089858E3,1.4935916E3,1.3152246E2,1.4146594E3,4.312516E2,4.4000244E1,0E0,0E0,0E0,0E0,0E0,0E0,0E0],"parents":[2147483647,0,0,1,1,2,2,3,3,4,4,5,5],"right_children":[2,4,6,8,10,12,-1,-1,-1,-1,-1,-1,-1],"split_conditions":[1.7129873E-1,3.8995996E-1,3.3163855E0,2.7946094E-1,-7.261274E-1,3.3844795E0,3.9643794E-2,-2.0843713E-2,1.5035562E-2,-5.706982E-2,2.8590435E-2,-5.1248852E-2,-1.905269E-2],"split_indices":[35,31,9,10,10,4,0,0,0,0,0,0,0],"split_type":[0,0,0,0,0,0,0,0,0,0,0,0,0],"sum_hessian":[7.334795E3,6.3585E3,9.7629474E2,3.9561377E3,2.4023625E3,9.620281E2,1.4266701E1,2.023293E3,1.9328446E3,5.3191505E1,2.3491711E3,9.2024146E2,4.178658E1],"tree_param":{"num_deleted":"0","num_feature":"77","num_nodes":"13","size_leaf_vector":"1"}},{"base_weights":[-8.699483E-3,-6.1424285E-1,7.517929E-1,-3.2304576E-1,-1.6116279E0,5.4194057E-1,1.1818337E0,-3.869108E-3,-4.538533E-2,-2.3623105E-2,-4.982993E-2,3.1255227E-2,7.6055788E-3,-5.2565787E-2,3.648263E-2],"categories":[],"categories_nodes":[],"categories_segments":[],"categories_sizes":[],"default_left":[0,0,0,0,0,0,0,0,0,0,0,0,0,0,0],"id":9,"left_children":[1,3,5,7,9,11,13,-1,-1,-1,-1,-1,-1,-1,-1],"loss_changes":[3.319595E3,1.1648511E3,2.8755322E2,7.1721564E2,3.533618E1,3.0951843E2,1.072937E2,0E0,0E0,0E0,0E0,0E0,0E0,0E0,0E0],"parents":[2147483647,0,0,1,1,2,2,3,3,4,4,5,5,6,6],"right_children":[2,4,6,8,10,12,14,-1,-1,-1,-1,-1,-1,-1,-1],"split_conditions":[3.3376718E-1,1.7129873E-1,2.024708E0,6.4064723E-1,-7.540714E-1,-4.698233E-1,-1.5932649E0,-3.869108E-3,-4.538533E-2,-2.3623105E-2,-4.982993E-2,3.1255227E-2,7.6055788E-3,-5.2565787E-2,3.648263E-2],"split_indices":[22,35,22,38,15,42,34,0,0,0,0,0,0,0,0],"split_type":[0,0,0,0,0,0,0,0,0,0,0,0,0,0,0],"sum_hessian":[7.2065283E3,4.0121619E3,3.1943667E3,3.1065857E3,9.055762E2,2.1484526E3,1.0459142E3,2.6719412E3,4.3464456E2,5.225161E1,8.533245E2,7.8496643E2,1.3634862E3,1.145733E1,1.0344568E3],"tree_param":{"num_deleted":"0","num_feature":"77","num_nodes":"15","size_leaf_vector":"1"}},{"base_weights":[-3.0372513E-2,2.1045773E-1,-1.5998962E0,-1.13552935E-1,8.4309715E-1,-4.9357243E-2,4.27622E-2,-1.3746562E-2,1.2273458E-2,-5.4542143E-2,2.7000826E-2],"categories":[],"categories_nodes":[],"categories_segments":[],"categories_sizes":[],"default_left":[0,0,0,0,0,0,0,0,0,0,0],"id":10,"left_children":[1,3,5,7,9,-1,-1,-1,-1,-1,-1],"loss_changes":[2.675155E3,1.2578524E3,1.315249E2,7.3127496E2,3.1641028E2,0E0,0E0,0E0,0E0,0E0,0E0],"parents":[2147483647,0,0,1,1,2,2,3,3,4,4],"right_children":[2,4,6,8,10,-1,-1,-1,-1,-1,-1],"split_conditions":[1.7129873E-1,3.246617E-1,3.3163855E0,2.6138395E-1,-7.261274E-1,-4.9357243E-2,4.27622E-2,-1.3746562E-2,1.2273458E-2,-5.4542143E-2,2.7000826E-2],"split_indices":[35,30,9,9,10,0,0,0,0,0,0],"split_type":[0,0,0,0,0,0,0,0,0,0,0],"sum_hessian":[7.0750815E3,6.1345835E3,9.4049817E2,4.057281E3,2.0773022E3,9.2709155E2,1.3406654E1,2.4451667E3,1.6121144E3,4.2824238E1,2.034478E3],"tree_param":{"num_deleted":"0","num_feature":"77","num_nodes":"11","size_leaf_vector":"1"}},{"base_weights":[-5.6605753E-3,-1.2613659E0,2.8739247E-1,-8.076906E-2,-1.5501868E0,-9.512639E-2,7.9138017E-1,-5.8220364E-2,3.4202807E-2,-5.0097875E-2,5.6083137E-3,-1.3333779E-2,2.014724E-2,-5.7043433E-2,2.5103882E-2],"categories":[],"categories_nodes":[],"categories_segments":[],"categories_sizes":[],"default_left":[0,0,0,0,0,0,0,0,0,0,0,0,0,0,0],"id":11,"left_children":[1,3,5,7,9,11,13,-1,-1,-1,-1,-1,-1,-1,-1],"loss_changes":[2.6217097E3,4.593833E2,1.1136897E3,6.065145E2,2.2573193E2,8.799902E2,3.0631702E2,0E0,0E0,0E0,0E0,0E0,0E0,0E0,0E0],"parents":[2147483647,0,0,1,1,2,2,3,3,4,4,5,5,6,6],"right_children":[2,4,6,8,10,12,14,-1,-1,-1,-1,-1,-1,-1,-1],"split_conditions":[-4.9911326E-1,-6.728507E-1,5.4743505E-1,-1.1966128E-1,1.2054719E0,3.8995996E-1,-1.5932649E0,-5.8220364E-2,3.4202807E-2,-5.0097875E-2,5.6083137E-3,-1.3333779E-2,2.014724E-2,-5.7043433E-2,2.5103882E-2],"split_indices":[10,40,22,54,31,31,34,0,0,0,0,0,0,0,0],"split_type":[0,0,0,0,0,0,0,0,0,0,0,0,0,0,0],"sum_hessian":[7.122189E3,1.347086E3,5.775103E3,2.6509564E2,1.0819905E3,3.2835513E3,2.4915515E3,1.04852135E2,1.6024352E2,1.0123071E3,6.96833E1,2.256136E3,1.0274153E3,4.061001E1,2.4509417E3],"tree_param":{"num_deleted":"0","num_feature":"77","num_nodes":"15","size_leaf_vector":"1"}},{"base_weights":[3.4295535E-4,-5.141759E-1,6.78804E-1,5.767924E-1,-7.849349E-1,-5.591085E-2,7.2459257E-1,2.28537E-2,-5.6390516E-2,-3.1542853E-2,1.9929556E-2,-2.4100162E-2,2.3651954E-2],"categories":[],"categories_nodes":[],"categories_segments":[],"categories_sizes":[],"default_left":[0,0,0,0,0,0,0,0,0,0,0,0,0],"id":12,"left_children":[1,3,5,7,9,-1,11,-1,-1,-1,-1,-1,-1],"loss_changes":[2.5139622E3,1.2102566E3,3.6283582E2,3.7161874E2,1.268189E3,0E0,2.981615E2,0E0,0E0,0E0,0E0,0E0,0E0],"parents":[2147483647,0,0,1,1,2,2,3,3,4,4,6,6],"right_children":[2,4,6,8,10,-1,12,-1,-1,-1,-1,-1,-1],"split_conditions":[3.4373116E-1,-5.8880794E-1,-1.5932649E0,-4.1242197E-1,9.421877E-1,-5.591085E-2,-2.6919535E-1,2.28537E-2,-5.6390516E-2,-3.1542853E-2,1.9929556E-2,-2.4100162E-2,2.3651954E-2],"split_indices":[22,35,34,49,31,0,10,0,0,0,0,0,0],"split_type":[0,0,0,0,0,0,0,0,0,0,0,0,0],"sum_hessian":[7.199611E3,4.094553E3,3.1050576E3,8.13842E2,3.2807112E3,5.4189625E1,3.050868E3,7.575234E2,5.63186E1,2.771434E3,5.0927707E2,1.21768715E2,2.929099E3],"tree_param":{"num_deleted":"0","num_feature":"77","num_nodes":"13","size_leaf_vector":"1"}},{"base_weights":[3.7331432E-2,-7.017085E-1,4.9339336E-1,6.353988E-1,-1.029622E0,2.5729257E-1,1.0064743E0,-3.6608577E-2,2.8012738E-2,-3.73908E-2,2.1909958E-2,2.6045578E-2,-9.835418E-4,-5.945787E-2,3.1693246E-2],"categories":[],"categories_nodes":[],"categories_segments":[],"categories_sizes":[],"default_left":[0,0,0,0,0,0,0,0,0,0,0,0,0,0,0],"id":13,"left_children":[1,3,5,7,9,11,13,-1,-1,-1,-1,-1,-1,-1,-1],"loss_changes":[2.4720984E3,1.2278855E3,5.490636E2,3.066098E2,8.585029E2,5.5082886E2,2.153717E2,0E0,0E0,0E0,0E0,0E0,0E0,0E0,0E0],"parents":[2147483647,0,0,1,1,2,2,3,3,4,4,5,5,6,6],"right_children":[2,4,6,8,10,12,14,-1,-1,-1,-1,-1,-1,-1,-1],"split_conditions":[-1.2934048E-1,-6.7395306E-1,1.4739599E0,-3.5775464E-2,1.2054719E0,-4.698233E-1,-6.482649E-1,-3.6608577E-2,2.8012738E-2,-3.73908E-2,2.1909958E-2,2.6045578E-2,-9.835418E-4,-5.945787E-2,3.1693246E-2],"split_indices":[22,40,22,44,31,42,31,0,0,0,0,0,0,0,0],"split_type":[0,0,0,0,0,0,0,0,0,0,0,0,0,0,0],"sum_hessian":[7.332594E3,2.7978965E3,4.5346973E3,5.507803E2,2.2471162E3,3.1067725E3,1.427925E3,7.5814804E1,4.7496545E2,2.0010376E3,2.4607872E2,9.997285E2,2.107044E3,2.2814062E1,1.405111E3],"tree_param":{"num_deleted":"0","num_feature":"77","num_nodes":"15","size_leaf_vector":"1"}},{"base_weights":[3.9425865E-2,-1.1937906E0,3.0819392E-1,-5.558002E-2,-1.4822302E0,-1.2057833E-2,8.639201E-1,3.451161E-2,-3.6226444E-2,-4.696916E-2,4.581434E-2,-9.354613E-3,1.5242906E-2,-2.28216E-2,2.9681848E-2],"categories":[],"categories_nodes":[],"categories_segments":[],"categories_sizes":[],"default_left":[0,0,0,0,0,0,0,0,0,0,0,0,0,0,0],"id":14,"left_children":[1,3,5,7,9,11,13,-1,-1,-1,-1,-1,-1,-1,-1],"loss_changes":[2.415325E3,4.278629E2,1.0649668E3,3.691876E2,2.634983E2,5.921395E2,4.4672168E2,0E0,0E0,0E0,0E0,0E0,0E0,0E0,0E0],"parents":[2147483647,0,0,1,1,2,2,3,3,4,4,5,5,6,6],"right_children":[2,4,6,8,10,12,14,-1,-1,-1,-1,-1,-1,-1,-1],"split_conditions":[-5.037345E-1,-6.728507E-1,2.9772446E-1,-1.9910114E-1,9.967415E-1,9.4962105E-2,-6.936089E-1,3.451161E-2,-3.6226444E-2,-4.696916E-2,4.581434E-2,-9.354613E-3,1.5242906E-2,-2.28216E-2,2.9681848E-2],"split_indices":[10,40,30,53,12,17,37,0,0,0,0,0,0,0,0],"split_type":[0,0,0,0,0,0,0,0,0,0,0,0,0,0,0],"sum_hessian":[7.285323E3,1.3029675E3,5.9823555E3,2.6374466E2,1.0392228E3,3.7957522E3,2.1866033E3,1.288106E2,1.3493407E2,1.01169543E3,2.7527393E1,2.4083975E3,1.387355E3,1.5634888E2,2.0302544E3],"tree_param":{"num_deleted":"0","num_feature":"77","num_nodes":"15","size_leaf_vector":"1"}},{"base_weights":[2.132182E-2,-4.286804E-1,7.6821786E-1,-1.7532295E-1,-1.4831268E0,-5.4650344E-2,8.0182636E-1,-1.5869759E-2,1.6786419E-2,-4.5971304E-2,-1.4622812E-2,-5.6902073E-2,2.4951784E-2],"categories":[],"categories_nodes":[],"categories_segments":[],"categories_sizes":[],"default_left":[0,0,0,0,0,0,0,0,0,0,0,0,0],"id":15,"left_children":[1,3,5,7,9,-1,11,-1,-1,-1,-1,-1,-1],"loss_changes":[2.4210417E3,1.2003926E3,2.370924E2,9.425161E2,4.1742676E1,0E0,2.1725049E2,0E0,0E0,0E0,0E0,0E0,0E0],"parents":[2147483647,0,0,1,1,2,2,3,3,4,4,6,6],"right_children":[2,4,6,8,10,-1,12,-1,-1,-1,-1,-1,-1],"split_conditions":[5.4743505E-1,1.7129873E-1,-1.1984156E0,3.8995996E-1,3.3844795E0,-5.4650344E-2,-4.2676282E-1,-1.5869759E-2,1.6786419E-2,-4.5971304E-2,-1.4622812E-2,-5.6902073E-2,2.4951784E-2],"split_indices":[22,35,30,31,4,0,10,0,0,0,0,0,0],"split_type":[0,0,0,0,0,0,0,0,0,0,0,0,0],"sum_hessian":[7.201152E3,4.493891E3,2.707261E3,3.6243179E3,8.69573E2,3.3961773E1,2.673299E3,2.4470493E3,1.1772687E3,8.279794E2,4.1593575E1,2.8574417E1,2.6447249E3],"tree_param":{"num_deleted":"0","num_feature":"77","num_nodes":"13","size_leaf_vector":"1"}},{"base_weights":[2.4051845E-2,2.3261102E-1,-1.4316607E0,-3.613769E-2,8.721502E-1,-1.4736906E0,3.6204223E-2,-3.484136E-2,3.6830034E-3,-6.016754E-2,2.8323E-2,-4.5662966E-2,-1.4789125E-2],"categories":[],"categories_nodes":[],"categories_segments":[],"categories_sizes":[],"default_left":[0,0,0,0,0,0,0,0,0,0,0,0,0],"id":16,"left_children":[1,3,5,7,9,11,-1,-1,-1,-1,-1,-1,-1],"loss_changes":[2.1648542E3,1.0721526E3,1.00896484E2,7.856734E2,3.8393848E2,4.0828125E1,0E0,0E0,0E0,0E0,0E0,0E0,0E0],"parents":[2147483647,0,0,1,1,2,2,3,3,4,4,5,5],"right_children":[2,4,6,8,10,12,-1,-1,-1,-1,-1,-1,-1],"split_conditions":[1.7129873E-1,6.311546E-1,3.3163855E0,-4.9911326E-1,-2.8161007E-1,3.3844795E0,3.6204223E-2,-3.484136E-2,3.6830034E-3,-6.016754E-2,2.8323E-2,-4.5662966E-2,-1.4789125E-2],"split_indices":[35,31,9,10,53,4,0,0,0,0,0,0,0],"split_type":[0,0,0,0,0,0,0,0,0,0,0,0,0],"sum_hessian":[7.1288594E3,6.2362974E3,8.925622E2,4.391625E3,1.8446722E3,8.7903876E2,1.3523458E1,5.427317E2,3.8488936E3,4.4306488E1,1.8003657E3,8.3706714E2,4.197156E1],"tree_param":{"num_deleted":"0","num_feature":"77","num_nodes":"13","size_leaf_vector":"1"}},{"base_weights":[-3.01743E-3,-9.271917E-1,3.2585278E-1,4.544426E-1,-1.2939866E0,7.8842795E-1,-2.1906802E-3,-5.1359452E-2,2.5709871E-2,-4.4195727E-2,1.0310362E-2,2.8170144E-2,-1.8243326E-2,1.5889982E-2,-1.6694741E-2],"categories":[],"categories_nodes":[],"categories_segments":[],"categories_sizes":[],"default_left":[0,0,0,0,0,0,0,0,0,0,0,0,0,0,0],"id":17,"left_children":[1,3,5,7,9,11,13,-1,-1,-1,-1,-1,-1,-1,-1],"loss_changes":[2.1311785E3,9.3332996E2,7.848174E2,3.3868085E2,4.275122E2,4.5184875E2,8.9255597E2,0E0,0E0,0E0,0E0,0E0,0E0,0E0,0E0],"parents":[2147483647,0,0,1,1,2,2,3,3,4,4,5,5,6,6],"right_children":[2,4,6,8,10,12,14,-1,-1,-1,-1,-1,-1,-1,-1],"split_conditions":[-3.6979368E-1,-4.4158727E-1,-2.7293727E-1,-2.614135E-1,1.0217459E0,-1.6248263E-1,-5.2495944E-1,-5.1359452E-2,2.5709871E-2,-4.4195727E-2,1.0310362E-2,2.8170144E-2,-1.8243326E-2,1.5889982E-2,-1.6694741E-2],"split_indices":[22,20,44,32,31,48,39,0,0,0,0,0,0,0,0],"split_type":[0,0,0,0,0,0,0,0,0,0,0,0,0,0,0],"sum_hessian":[7.0098E3,1.8393729E3,5.170427E3,3.8576624E2,1.4536066E3,2.1448574E3,3.025569E3,5.9900085E1,3.2586615E2,1.3103778E3,1.4322882E2,1.9364642E3,2.083932E2,1.5439749E3,1.4815944E3],"tree_param":{"num_deleted":"0","num_feature":"77","num_nodes":"15","size_leaf_vector":"1"}},{"base_weights":[4.8788745E-2,-6.0751057E-1,4.4970956E-1,4.396585E-1,-9.947438E-1,-5.5023655E-2,4.9422413E-1,1.8114477E-2,-5.2438457E-2,4.0971544E-3,-4.1860126E-2,8.479249E-3,2.892518E-2],"categories":[],"categories_nodes":[],"categories_segments":[],"categories_sizes":[],"default_left":[0,0,0,0,0,0,0,0,0,0,0,0,0],"id":18,"left_children":[1,3,5,7,9,-1,11,-1,-1,-1,-1,-1,-1],"loss_changes":[1.9074004E3,1.1151918E3,4.5827136E2,2.6766656E2,9.0998535E2,0E0,4.3859033E2,0E0,0E0,0E0,0E0,0E0,0E0],"parents":[2147483647,0,0,1,1,2,2,3,3,4,4,6,6],"right_children":[2,4,6,8,10,-1,12,-1,-1,-1,-1,-1,-1],"split_conditions":[-1.2934048E-1,-6.728507E-1,-1.6733406E0,-2.8426878E-2,-2.7847168E-1,-5.5023655E-2,1.4739599E0,1.8114477E-2,-5.2438457E-2,4.0971544E-3,-4.1860126E-2,8.479249E-3,2.892518E-2],"split_indices":[22,40,34,44,44,0,22,0,0,0,0,0,0],"split_type":[0,0,0,0,0,0,0,0,0,0,0,0,0],"sum_hessian":[7.2470757E3,2.7479583E3,4.499117E3,7.4173645E2,2.0062219E3,8.520497E1,4.413912E3,6.906779E2,5.1058586E1,5.2473334E2,1.4814885E3,3.0448567E3,1.3690557E3],"tree_param":{"num_deleted":"0","num_feature":"77","num_nodes":"13","size_leaf_vector":"1"}},{"base_weights":[-3.0670172E-2,-4.9119186E-1,5.702429E-1,-1.4402766E0,-2.3407595E-1,3.5521734E-1,9.996183E-1,-4.4833824E-2,2.083734E-2,-2.2247055E-4,-3.4823943E-2,-1.3019483E-2,1.5969196E-2,-7.118452E-2,3.1622004E-2],"categories":[],"categories_nodes":[],"categories_segments":[],"categories_sizes":[],"default_left":[0,0,0,0,0,0,0,0,0,0,0,0,0,0,0],"id":19,"left_children":[1,3,5,7,9,11,13,-1,-1,-1,-1,-1,-1,-1,-1],"loss_changes":[1.9090961E3,9.525697E2,2.7584808E2,9.7389404E1,6.4565295E2,2.792035E2,1.8563074E2,0E0,0E0,0E0,0E0,0E0,0E0,0E0,0E0],"parents":[2147483647,0,0,1,1,2,2,3,3,4,4,5,5,6,6],"right_children":[2,4,6,8,10,12,14,-1,-1,-1,-1,-1,-1,-1,-1],"split_conditions":[3.4373116E-1,-3.1890067E-1,2.024708E0,1.7894576E0,-2.8426878E-2,-3.103841E-1,-7.1482515E-1,-4.4833824E-2,2.083734E-2,-2.2247055E-4,-3.4823943E-2,-1.3019483E-2,1.5969196E-2,-7.118452E-2,3.1622004E-2],"split_indices":[22,37,22,7,44,30,15,0,0,0,0,0,0,0,0],"split_type":[0,0,0,0,0,0,0,0,0,0,0,0,0,0,0],"sum_hessian":[6.8966978E3,3.9046445E3,2.9920532E3,8.312572E2,3.0733872E3,1.9950292E3,9.9702405E2,8.110198E2,2.0237455E1,2.4703083E3,6.030789E2,3.652542E2,1.6297749E3,1.51356535E1,9.8188837E2],"tree_param":{"num_deleted":"0","num_feature":"77","num_nodes":"15","size_leaf_vector":"1"}},{"base_weights":[1.5960006E-2,-4.383784E-1,5.916486E-1,6.7410094E-1,-7.495304E-1,-1.0772615E-1,7.033081E-1,2.7703103E-2,-2.244035E-2,-3.858956E-2,-9.203021E-3,-2.429181E-2,3.608947E-2,2.6943833E-2,4.987008E-3],"categories":[],"categories_nodes":[],"categories_segments":[],"categories_sizes":[],"default_left":[0,0,0,0,0,0,0,0,0,0,0,0,0,0,0],"id":20,"left_children":[1,3,5,7,9,11,13,-1,-1,-1,-1,-1,-1,-1,-1],"loss_changes":[1.8334701E3,1.356633E3,2.4159888E2,3.0448798E2,7.2719165E2,3.933126E2,2.7875806E2,0E0,0E0,0E0,0E0,0E0,0E0,0E0,0E0],"parents":[2147483647,0,0,1,1,2,2,3,3,4,4,5,5,6,6],"right_children":[2,4,6,8,10,12,14,-1,-1,-1,-1,-1,-1,-1,-1],"split_conditions":[3.3376718E-1,-5.8880794E-1,-2.2827898E-1,2.4640114E0,-3.883992E-1,1.9287035E-1,-5.3058046E-1,2.7703103E-2,-2.244035E-2,-3.858956E-2,-9.203021E-3,-2.429181E-2,3.608947E-2,2.6943833E-2,4.987008E-3],"split_indices":[22,35,31,50,22,42,35,0,0,0,0,0,0,0,0],"split_type":[0,0,0,0,0,0,0,0,0,0,0,0,0,0,0],"sum_hessian":[7.007768E3,3.9167222E3,3.091046E3,8.557222E2,3.0609998E3,4.254427E2,2.6656033E3,7.284293E2,1.2729292E2,1.382627E3,1.6783729E3,2.7735367E2,1.4808902E2,1.9554282E3,7.101751E2],"tree_param":{"num_deleted":"0","num_feature":"77","num_nodes":"15","size_leaf_vector":"1"}},{"base_weights":[1.0548618E-2,1.9904466E-1,-1.388408E0,-6.68522E-2,8.2539743E-1,-4.958734E-1,-4.3309283E-2,-4.0222287E-2,2.964227E-3,-5.815919E-2,2.6745526E-2,-4.2477995E-2,4.86245E-2],"categories":[],"categories_nodes":[],"categories_segments":[],"categories_sizes":[],"default_left":[0,0,0,0,0,0,0,0,0,0,0,0,0],"id":21,"left_children":[1,3,5,7,9,11,-1,-1,-1,-1,-1,-1,-1],"loss_changes":[1.8385452E3,1.02350085E3,3.9903564E1,9.107233E2,3.3631885E2,9.940759E1,0E0,0E0,0E0,0E0,0E0,0E0,0E0],"parents":[2147483647,0,0,1,1,2,2,3,3,4,4,5,5],"right_children":[2,4,6,8,10,12,-1,-1,-1,-1,-1,-1,-1],"split_conditions":[1.7129873E-1,6.311546E-1,-7.540714E-1,-4.9911326E-1,-2.8161007E-1,3.3987186E0,-4.3309283E-2,-4.0222287E-2,2.964227E-3,-5.815919E-2,2.6745526E-2,-4.2477995E-2,4.86245E-2],"split_indices":[35,31,15,10,53,49,0,0,0,0,0,0,0],"split_type":[0,0,0,0,0,0,0,0,0,0,0,0,0],"sum_hessian":[6.9705713E3,6.1436963E3,8.2687524E2,4.313345E3,1.830351E3,4.8876274E1,7.7799896E2,4.9562183E2,3.8177234E3,4.206502E1,1.788286E3,3.4331665E1,1.4544608E1],"tree_param":{"num_deleted":"0","num_feature":"77","num_nodes":"13","size_leaf_vector":"1"}},{"base_weights":[2.1664111E-2,-8.3947587E-1,3.1324357E-1,-1.0941716E0,7.6275593E-1,7.4222946E-1,1.0007948E-2,5.6114E-3,-4.125283E-2,3.0145572E-2,-5.0680544E-2,-5.6537785E-2,2.4326067E-2,1.2094509E-2,-2.3987442E-2],"categories":[],"categories_nodes":[],"categories_segments":[],"categories_sizes":[],"default_left":[0,0,0,0,0,0,0,0,0,0,0,0,0,0,0],"id":22,"left_children":[1,3,5,7,9,11,13,-1,-1,-1,-1,-1,-1,-1,-1],"loss_changes":[1.7487964E3,7.197905E2,6.7677563E2,5.476542E2,1.4539346E2,3.899165E2,9.709121E2,0E0,0E0,0E0,0E0,0E0,0E0,0E0,0E0],"parents":[2147483647,0,0,1,1,2,2,3,3,4,4,5,5,6,6],"right_children":[2,4,6,8,10,12,14,-1,-1,-1,-1,-1,-1,-1,-1],"split_conditions":[-3.6979368E-1,1.0217459E0,-2.7293727E-1,-5.8880794E-1,1.334037E-1,-1.5990458E-1,-5.4811674E-1,5.6114E-3,-4.125283E-2,3.0145572E-2,-5.0680544E-2,-5.6537785E-2,2.4326067E-2,1.2094509E-2,-2.3987442E-2],"split_indices":[22,31,44,35,42,53,36,0,0,0,0,0,0,0,0],"split_type":[0,0,0,0,0,0,0,0,0,0,0,0,0,0,0],"sum_hessian":[6.962961E3,1.7607134E3,5.2022476E3,1.5195417E3,2.4117159E2,2.1536758E3,3.0485718E3,2.732581E2,1.2462837E3,2.2007462E2,2.109697E1,5.413215E1,2.0995437E3,2.0524924E3,9.9607935E2],"tree_param":{"num_deleted":"0","num_feature":"77","num_nodes":"15","size_leaf_vector":"1"}},{"base_weights":[-1.1291088E-3,1.69958E-1,-1.2620344E0,-8.313481E-2,7.7831763E-1,-1.4091012E0,-6.0425993E-2,1.4636883E-2,-1.1539698E-2,-5.553829E-2,2.5191873E-2,-4.1547358E-2,-5.304016E-2,-4.3646615E-2,3.0681256E-2],"categories":[],"categories_nodes":[],"categories_segments":[],"categories_sizes":[],"default_left":[0,0,0,0,0,0,0,0,0,0,0,0,0,0,0],"id":23,"left_children":[1,3,5,7,9,11,13,-1,-1,-1,-1,-1,-1,-1,-1],"loss_changes":[1.4889603E3,9.358176E2,1.4549585E2,7.392307E2,2.8980847E2,3.6135254E0,1.3904031E2,0E0,0E0,0E0,0E0,0E0,0E0,0E0,0E0],"parents":[2147483647,0,0,1,1,2,2,3,3,4,4,5,5,6,6],"right_children":[2,4,6,8,10,12,14,-1,-1,-1,-1,-1,-1,-1,-1],"split_conditions":[1.7129873E-1,6.311546E-1,4.2849336E0,-5.228984E-1,-2.8161007E-1,3.08229E-1,2.6754138E-1,1.4636883E-2,-1.1539698E-2,-5.553829E-2,2.5191873E-2,-4.1547358E-2,-5.304016E-2,-4.3646615E-2,3.0681256E-2],"split_indices":[35,31,33,41,53,22,23,0,0,0,0,0,0,0,0],"split_type":[0,0,0,0,0,0,0,0,0,0,0,0,0,0,0],"sum_hessian":[6.8996343E3,6.075993E3,8.2364087E2,4.2913735E3,1.7846196E3,7.3359863E2,9.004222E1,1.4826111E3,2.8087627E3,4.0024555E1,1.744595E3,6.920909E2,4.1507763E1,3.925422E1,5.0788002E1],"tree_param":{"num_deleted":"0","num_feature":"77","num_nodes":"15","size_leaf_vector":"1"}},{"base_weights":[3.2712943E-3,1.7461438E-1,-1.2876863E0,-1.6859679E-1,5.495494E-1,-4.18956E-2,-3.596519E-2,1.9058E-2,-1.4710127E-2,-3.4517555E-3,2.26546E-2,5.6670163E-2,-4.195401E-2],"categories":[],"categories_nodes":[],"categories_segments":[],"categories_sizes":[],"default_left":[0,0,0,0,0,0,0,0,0,0,0,0,0],"id":24,"left_children":[1,3,5,7,9,-1,11,-1,-1,-1,-1,-1,-1],"loss_changes":[1.5159058E3,7.7874445E2,1.0919971E2,8.174854E2,3.95341E2,0E0,1.7394933E2,0E0,0E0,0E0,0E0,0E0,0E0],"parents":[2147483647,0,0,1,1,2,2,3,3,4,4,6,6],"right_children":[2,4,6,8,10,-1,12,-1,-1,-1,-1,-1,-1],"split_conditions":[1.7129873E-1,2.8813174E-1,1.6131175E0,-5.8880794E-1,-3.103841E-1,-4.18956E-2,-8.41114E-1,1.9058E-2,-1.4710127E-2,-3.4517555E-3,2.26546E-2,5.6670163E-2,-4.195401E-2],"split_indices":[35,10,20,35,30,0,10,0,0,0,0,0,0],"split_type":[0,0,0,0,0,0,0,0,0,0,0,0,0],"sum_hessian":[6.8516914E3,6.0496855E3,8.020058E2,3.158612E3,2.8910732E3,7.376717E2,6.433408E1,9.0248486E2,2.2561274E3,6.8305963E2,2.2080137E3,2.647286E1,3.786122E1],"tree_param":{"num_deleted":"0","num_feature":"77","num_nodes":"13","size_leaf_vector":"1"}},{"base_weights":[-2.5574131E-2,-4.8371205E-1,5.3073937E-1,-7.067119E-1,5.5970234E-1,-1.7721881E-1,6.423469E-1,6.9204653E-3,-2.7914213E-2,-3.345838E-2,2.3425154E-2,-3.9440334E-2,1.4809202E-2,2.508278E-2,1.8845102E-3],"categories":[],"categories_nodes":[],"categories_segments":[],"categories_sizes":[],"default_left":[0,0,0,0,0,0,0,0,0,0,0,0,0,0,0],"id":25,"left_children":[1,3,5,7,9,11,13,-1,-1,-1,-1,-1,-1,-1,-1],"loss_changes":[1.7230906E3,8.630933E2,2.4140033E2,6.4113025E2,2.4283284E2,3.1850275E2,2.9602344E2,0E0,0E0,0E0,0E0,0E0,0E0,0E0,0E0],"parents":[2147483647,0,0,1,1,2,2,3,3,4,4,5,5,6,6],"right_children":[2,4,6,8,10,12,14,-1,-1,-1,-1,-1,-1,-1,-1],"split_conditions":[3.3376718E-1,8.2840353E-1,-2.2827898E-1,-5.8880794E-1,-3.1890067E-1,-2.5772363E-1,-5.3058046E-1,6.9204653E-3,-2.7914213E-2,-3.345838E-2,2.3425154E-2,-3.9440334E-2,1.4809202E-2,2.508278E-2,1.8845102E-3],"split_indices":[22,31,31,35,37,4,35,0,0,0,0,0,0,0,0],"split_type":[0,0,0,0,0,0,0,0,0,0,0,0,0,0,0],"sum_hessian":[6.758721E3,3.706575E3,3.052146E3,3.054238E3,6.5233704E2,4.1543597E2,2.63671E3,5.8847845E2,2.4657595E3,7.5555E1,5.7678204E2,1.5381981E2,2.6161615E2,1.975616E3,6.610941E2],"tree_param":{"num_deleted":"0","num_feature":"77","num_nodes":"15","size_leaf_vector":"1"}},{"base_weights":[3.4524817E-3,-2.2634801E-1,6.697808E-1,-5.284544E-1,2.873032E-1,7.661321E-1,-1.252974E0,7.159099E-3,-2.4434347E-2,1.3868487E-2,-3.85535E-2,-5.9030272E-2,2.490125E-2,-5.373972E-2,3.3400644E-2],"categories":[],"categories_nodes":[],"categories_segments":[],"categories_sizes":[],"default_left":[0,0,0,0,0,0,0,0,0,0,0,0,0,0,0],"id":26,"left_children":[1,3,5,7,9,11,13,-1,-1,-1,-1,-1,-1,-1,-1],"loss_changes":[1.0401208E3,7.8390063E2,3.2362354E2,6.980929E2,5.1528064E2,2.9145972E2,1.0837665E2,0E0,0E0,0E0,0E0,0E0,0E0,0E0,0E0],"parents":[2147483647,0,0,1,1,2,2,3,3,4,4,5,5,6,6],"right_children":[2,4,6,8,10,12,14,-1,-1,-1,-1,-1,-1,-1,-1],"split_conditions":[6.516501E-1,2.6138395E-1,3.6018848E-1,-6.0286736E-1,-3.49142E-1,-2.8161007E-1,5.1574388E0,7.159099E-3,-2.4434347E-2,1.3868487E-2,-3.85535E-2,-5.9030272E-2,2.490125E-2,-5.373972E-2,3.3400644E-2],"split_indices":[30,9,43,19,49,53,26,0,0,0,0,0,0,0,0],"split_type":[0,0,0,0,0,0,0,0,0,0,0,0,0,0,0],"sum_hessian":[6.790454E3,5.0495103E3,1.7409436E3,3.179587E3,1.8699233E3,1.6584885E3,8.245508E1,8.635193E2,2.3160676E3,1.683367E3,1.8655635E2,3.7169437E1,1.6213191E3,6.7405334E1,1.5049746E1],"tree_param":{"num_deleted":"0","num_feature":"77","num_nodes":"15","size_leaf_vector":"1"}},{"base_weights":[1.9625654E-2,1.8091494E-1,-1.2630918E0,-1.05110385E-1,6.046183E-1,-1.3082944E0,3.6872584E-2,-1.1306577E-2,1.6583322E-2,-6.824758E-2,1.9200731E-2,-1.0819711E-2,-4.0955443E-2],"categories":[],"categories_nodes":[],"categories_segments":[],"categories_sizes":[],"default_left":[0,0,0,0,0,0,0,0,0,0,0,0,0],"id":27,"left_children":[1,3,5,7,9,11,-1,-1,-1,-1,-1,-1,-1],"loss_changes":[1.4167415E3,7.373601E2,8.778015E1,6.4966675E2,2.5127502E2,3.986133E1,0E0,0E0,0E0,0E0,0E0,0E0,0E0],"parents":[2147483647,0,0,1,1,2,2,3,3,4,4,5,5],"right_children":[2,4,6,8,10,12,-1,-1,-1,-1,-1,-1,-1],"split_conditions":[1.7129873E-1,5.4743505E-1,3.3163855E0,1.7250784E-1,-7.483282E-1,-7.540714E-1,3.6872584E-2,-1.1306577E-2,1.6583322E-2,-6.824758E-2,1.9200731E-2,-1.0819711E-2,-4.0955443E-2],"split_indices":[35,22,9,52,52,15,0,0,0,0,0,0,0],"split_type":[0,0,0,0,0,0,0,0,0,0,0,0,0],"sum_hessian":[6.846266E3,6.0824004E3,7.638659E2,3.631461E3,2.4509392E3,7.507639E2,1.3102014E1,2.5702583E3,1.0612028E3,2.8967451E1,2.4219717E3,4.3031628E1,7.077323E2],"tree_param":{"num_deleted":"0","num_feature":"77","num_nodes":"13","size_leaf_vector":"1"}},{"base_weights":[3.9249314E-3,-9.9517095E-1,2.0604958E-1,-3.2634795E-2,-1.2710855E0,-6.4948775E-2,6.926063E-1,-1.622307E-2,5.7546105E-2,-4.0861055E-2,4.6170387E-2,-8.980186E-3,1.0867107E-2,-5.9280355E-2,2.2474287E-2],"categories":[],"categories_nodes":[],"categories_segments":[],"categories_sizes":[],"default_left":[0,0,0,0,0,0,0,0,0,0,0,0,0,0,0],"id":28,"left_children":[1,3,5,7,9,11,13,-1,-1,-1,-1,-1,-1,-1,-1],"loss_changes":[1.359024E3,3.0056213E2,7.382085E2,2.520813E2,2.2698315E2,3.6017172E2,3.0351398E2,0E0,0E0,0E0,0E0,0E0,0E0,0E0,0E0],"parents":[2147483647,0,0,1,1,2,2,3,3,4,4,5,5,6,6],"right_children":[2,4,6,8,10,12,14,-1,-1,-1,-1,-1,-1,-1,-1],"split_conditions":[-5.037345E-1,-6.728507E-1,2.9772446E-1,-2.618261E-1,9.967415E-1,9.4962105E-2,-2.9561406E-1,-1.622307E-2,5.7546105E-2,-4.0861055E-2,4.6170387E-2,-8.980186E-3,1.0867107E-2,-5.9280355E-2,2.2474287E-2],"split_indices":[10,40,30,46,12,17,32,0,0,0,0,0,0,0,0],"split_type":[0,0,0,0,0,0,0,0,0,0,0,0,0,0,0],"sum_hessian":[6.7281523E3,1.1313762E3,5.596776E3,2.5238934E2,8.7898694E2,3.5950793E3,2.0016968E3,2.0084848E2,5.154087E1,8.519638E2,2.7023151E1,2.3217185E3,1.2733608E3,4.07866E1,1.9609102E3],"tree_param":{"num_deleted":"0","num_feature":"77","num_nodes":"15","size_leaf_vector":"1"}},{"base_weights":[-2.6815424E-3,-5.3787076E-1,3.3705315E-1,-8.373419E-1,3.0868483E-1,8.244795E-2,7.1857184E-1,-6.538118E-3,-3.8064413E-2,-1.0261903E-2,3.4108866E-2,-8.9494735E-3,1.569481E-2,2.2743473E-2,-7.182043E-2],"categories":[],"categories_nodes":[],"categories_segments":[],"categories_sizes":[],"default_left":[0,0,0,0,0,0,0,0,0,0,0,0,0,0,0],"id":29,"left_children":[1,3,5,7,9,11,13,-1,-1,-1,-1,-1,-1,-1,-1],"loss_changes":[1.2199146E3,6.6081287E2,3.9850317E2,5.1401086E2,3.6776984E2,4.1342822E2,2.037909E2,0E0,0E0,0E0,0E0,0E0,0E0,0E0,0E0],"parents":[2147483647,0,0,1,1,2,2,3,3,4,4,5,5,6,6],"right_children":[2,4,6,8,10,12,14,-1,-1,-1,-1,-1,-1,-1,-1],"split_conditions":[-1.0133841E-1,1.7250784E-1,4.0783405E-1,-2.3313987E-1,3.8995996E-1,7.856444E-1,1.2889856E0,-6.538118E-3,-3.8064413E-2,-1.0261903E-2,3.4108866E-2,-8.9494735E-3,1.569481E-2,2.2743473E-2,-7.182043E-2],"split_indices":[22,52,31,52,31,22,52,0,0,0,0,0,0,0,0],"split_type":[0,0,0,0,0,0,0,0,0,0,0,0,0,0,0],"sum_hessian":[6.707269E3,2.6043335E3,4.1029355E3,1.9238839E3,6.804497E2,2.461644E3,1.6412914E3,7.906269E2,1.1332571E3,3.8132355E2,2.9912613E2,1.3206951E3,1.140949E3,1.6214797E3,1.9811565E1],"tree_param":{"num_deleted":"0","num_feature":"77","num_nodes":"15","size_leaf_vector":"1"}},{"base_weights":[8.924071E-3,-3.8713712E-1,4.974694E-1,5.8233297E-1,-5.821245E-1,5.2353245E-1,-7.417676E-2,-4.835826E-2,2.4554158E-2,1.4033742E-2,-2.7736453E-2,1.6478345E-2,-6.861936E-2],"categories":[],"categories_nodes":[],"categories_segments":[],"categories_sizes":[],"default_left":[0,0,0,0,0,0,0,0,0,0,0,0,0],"id":30,"left_children":[1,3,5,7,9,11,-1,-1,-1,-1,-1,-1,-1],"loss_changes":[1.3001166E3,7.0178656E2,2.3397565E2,3.2341006E2,1.111356E3,2.1696216E2,0E0,0E0,0E0,0E0,0E0,0E0,0E0],"parents":[2147483647,0,0,1,1,2,2,3,3,4,4,5,5],"right_children":[2,4,6,8,10,12,-1,-1,-1,-1,-1,-1,-1],"split_conditions":[3.3376718E-1,-5.34834E-1,2.381205E0,-2.4520026E-1,-6.7395306E-1,4.908272E-1,-7.417676E-2,-4.835826E-2,2.4554158E-2,1.4033742E-2,-2.7736453E-2,1.6478345E-2,-6.861936E-2],"split_indices":[22,44,11,54,40,53,0,0,0,0,0,0,0],"split_type":[0,0,0,0,0,0,0,0,0,0,0,0,0],"sum_hessian":[6.7171104E3,3.709688E3,3.0074224E3,6.207653E2,3.0889226E3,2.9821106E3,2.5311693E1,5.9706318E1,5.61059E2,7.595099E2,2.3294128E3,2.9558767E3,2.6234E1],"tree_param":{"num_deleted":"0","num_feature":"77","num_nodes":"13","size_leaf_vector":"1"}},{"base_weights":[6.8562552E-3,1.5396619E-1,-1.2211106E0,-5.568158E-2,7.239334E-1,-1.2686661E0,3.548096E-2,3.7708147E-3,-2.5671503E-2,-5.6956705E-2,2.3831246E-2,-3.9932318E-2,-9.166685E-3],"categories":[],"categories_nodes":[],"categories_segments":[],"categories_sizes":[],"default_left":[0,0,0,0,0,0,0,0,0,0,0,0,0],"id":31,"left_children":[1,3,5,7,9,11,-1,-1,-1,-1,-1,-1,-1],"loss_changes":[1.2068265E3,7.130532E2,8.320984E1,6.3325305E2,2.9782837E2,4.1587646E1,0E0,0E0,0E0,0E0,0E0,0E0,0E0],"parents":[2147483647,0,0,1,1,2,2,3,3,4,4,5,5],"right_children":[2,4,6,8,10,12,-1,-1,-1,-1,-1,-1,-1],"split_conditions":[1.7129873E-1,6.516501E-1,3.3163855E0,-4.821729E-2,-2.8161007E-1,1.6131175E0,3.548096E-2,3.7708147E-3,-2.5671503E-2,-5.6956705E-2,2.3831246E-2,-3.9932318E-2,-9.166685E-3],"split_indices":[35,30,9,53,53,20,0,0,0,0,0,0,0],"split_type":[0,0,0,0,0,0,0,0,0,0,0,0,0],"sum_hessian":[6.679161E3,5.965458E3,7.1370337E2,4.3618066E3,1.6036514E3,7.003617E2,1.3341712E1,3.5562822E3,8.0552435E2,4.1232197E1,1.5624192E3,6.572827E2,4.307896E1],"tree_param":{"num_deleted":"0","num_feature":"77","num_nodes":"13","size_leaf_vector":"1"}},{"base_weights":[1.4379877E-2,-9.651935E-1,2.0627387E-1,1.43696945E-2,-1.2818896E0,1.1741048E-2,7.9841655E-1,-5.262338E-2,3.679733E-2,-3.9804395E-2,1.8464569E-2,1.6907286E-2,-6.1379476E-3,-2.3690144E-2,2.7763294E-2],"categories":[],"categories_nodes":[],"categories_segments":[],"categories_sizes":[],"default_left":[0,0,0,0,0,0,0,0,0,0,0,0,0,0,0],"id":32,"left_children":[1,3,5,7,9,11,13,-1,-1,-1,-1,-1,-1,-1,-1],"loss_changes":[1.2521799E3,3.386526E2,6.415957E2,5.755606E2,7.118042E1,5.008738E2,2.7860388E2,0E0,0E0,0E0,0E0,0E0,0E0,0E0,0E0],"parents":[2147483647,0,0,1,1,2,2,3,3,4,4,5,5,6,6],"right_children":[2,4,6,8,10,12,14,-1,-1,-1,-1,-1,-1,-1,-1],"split_conditions":[-5.037345E-1,-4.4369075E-1,7.996553E-1,-1.3116491E-1,9.967415E-1,-4.3878353E-1,-6.936089E-1,-5.262338E-2,3.679733E-2,-3.9804395E-2,1.8464569E-2,1.6907286E-2,-6.1379476E-3,-2.3690144E-2,2.7763294E-2],"split_indices":[10,18,30,54,12,20,37,0,0,0,0,0,0,0,0],"split_type":[0,0,0,0,0,0,0,0,0,0,0,0,0,0,0],"sum_hessian":[6.6597896E3,1.0901715E3,5.569618E3,2.665017E2,8.2366974E2,4.1932314E3,1.3763866E3,1.0816743E2,1.5833429E2,8.049642E2,1.8705544E1,1.1806089E3,3.0126226E3,1.0149475E2,1.2748918E3],"tree_param":{"num_deleted":"0","num_feature":"77","num_nodes":"15","size_leaf_vector":"1"}},{"base_weights":[-4.919862E-2,-9.883163E-1,1.3751371E-1,1.7973083E-1,-1.2088588E0,5.556044E-1,-1.2727359E-1,-5.3495936E-2,3.872002E-2,-3.874274E-2,2.9604886E-2,-2.2448674E-2,2.1315947E-2,1.7639998E-2,-1.7397182E-2],"categories":[],"categories_nodes":[],"categories_segments":[],"categories_sizes":[],"default_left":[0,0,0,0,0,0,0,0,0,0,0,0,0,0,0],"id":33,"left_children":[1,3,5,7,9,11,13,-1,-1,-1,-1,-1,-1,-1,-1],"loss_changes":[1.125449E3,2.7453235E2,5.9280194E2,3.726706E2,1.6366821E2,4.199508E2,1.0617727E3,0E0,0E0,0E0,0E0,0E0,0E0,0E0,0E0],"parents":[2147483647,0,0,1,1,2,2,3,3,4,4,5,5,6,6],"right_children":[2,4,6,8,10,12,14,-1,-1,-1,-1,-1,-1,-1,-1],"split_conditions":[-5.037345E-1,-5.8924794E-1,-2.7293727E-1,-1.3116491E-1,9.967415E-1,-3.7245128E-1,-5.8880794E-1,-5.3495936E-2,3.872002E-2,-3.874274E-2,2.9604886E-2,-2.2448674E-2,2.1315947E-2,1.7639998E-2,-1.7397182E-2],"split_indices":[10,35,44,54,12,52,35,0,0,0,0,0,0,0,0],"split_type":[0,0,0,0,0,0,0,0,0,0,0,0,0,0,0],"sum_hessian":[6.416229E3,1.063471E3,5.352758E3,1.6886299E2,8.946079E2,2.0752632E3,3.2774946E3,6.0778133E1,1.08084854E2,8.6262744E2,3.198051E1,2.1991826E2,1.855345E3,1.2700211E3,2.0074736E3],"tree_param":{"num_deleted":"0","num_feature":"77","num_nodes":"15","size_leaf_vector":"1"}},{"base_weights":[-5.576453E-3,-9.1869074E-1,1.7510006E-1,1.9245394E-1,-1.202496E0,-2.052802E-2,7.7234983E-1,-2.254822E-2,4.4382706E-2,-3.861495E-2,2.7104596E-2,1.6936198E-2,-8.735329E-3,-3.0972747E-2,2.7046198E-2],"categories":[],"categories_nodes":[],"categories_segments":[],"categories_sizes":[],"default_left":[0,0,0,0,0,0,0,0,0,0,0,0,0,0,0],"id":34,"left_children":[1,3,5,7,9,11,13,-1,-1,-1,-1,-1,-1,-1,-1],"loss_changes":[1.0725995E3,3.3900153E2,6.341848E2,2.6761462E2,1.53776E2,6.4760724E2,3.131607E2,0E0,0E0,0E0,0E0,0E0,0E0,0E0,0E0],"parents":[2147483647,0,0,1,1,2,2,3,3,4,4,5,5,6,6],"right_children":[2,4,6,8,10,12,14,-1,-1,-1,-1,-1,-1,-1,-1],"split_conditions":[-4.9911326E-1,-2.2779018E-1,7.996553E-1,-3.434219E-2,9.967415E-1,-5.434912E-1,-6.936089E-1,-2.254822E-2,4.4382706E-2,-3.861495E-2,2.7104596E-2,1.6936198E-2,-8.735329E-3,-3.0972747E-2,2.7046198E-2],"split_indices":[10,0,30,44,12,41,37,0,0,0,0,0,0,0,0],"split_type":[0,0,0,0,0,0,0,0,0,0,0,0,0,0,0],"sum_hessian":[6.4990317E3,1.0729514E3,5.4260806E3,2.1828781E2,8.546636E2,4.0878958E3,1.3381847E3,1.2611442E2,9.21734E1,8.220501E2,3.2613476E1,1.292475E3,2.795421E3,8.887286E1,1.2493118E3],"tree_param":{"num_deleted":"0","num_feature":"77","num_nodes":"15","size_leaf_vector":"1"}},{"base_weights":[3.705605E-2,-9.8289466E-1,2.216713E-1,-6.52415E-2,-1.2780274E0,-8.318269E-2,5.8879775E-1,-5.1650733E-2,3.050894E-2,-4.010864E-2,1.1794311E-2,-1.0040046E-2,1.586286E-2,1.09541165E-2,2.675039E-2],"categories":[],"categories_nodes":[],"categories_segments":[],"categories_sizes":[],"default_left":[0,0,0,0,0,0,0,0,0,0,0,0,0,0,0],"id":35,"left_children":[1,3,5,7,9,11,13,-1,-1,-1,-1,-1,-1,-1,-1],"loss_changes":[1.2631656E3,2.782281E2,6.358544E2,4.5236185E2,7.721484E1,4.7787158E2,1.7414136E2,0E0,0E0,0E0,0E0,0E0,0E0,0E0,0E0],"parents":[2147483647,0,0,1,1,2,2,3,3,4,4,5,5,6,6],"right_children":[2,4,6,8,10,12,14,-1,-1,-1,-1,-1,-1,-1,-1],"split_conditions":[-5.037345E-1,-6.728507E-1,5.4743505E-1,-1.1966128E-1,3.3844795E0,1.7250784E-1,1.9126863E0,-5.1650733E-2,3.050894E-2,-4.010864E-2,1.1794311E-2,-1.0040046E-2,1.586286E-2,1.09541165E-2,2.675039E-2],"split_indices":[10,40,22,54,4,52,22,0,0,0,0,0,0,0,0],"split_type":[0,0,0,0,0,0,0,0,0,0,0,0,0,0,0],"sum_hessian":[6.706563E3,1.0271215E3,5.6794414E3,2.5033072E2,7.767907E2,3.1031514E3,2.57629E3,9.87236E1,1.5160712E2,7.5058417E2,2.6206564E1,2.1997544E3,9.033971E2,1.4834126E3,1.0928776E3],"tree_param":{"num_deleted":"0","num_feature":"77","num_nodes":"15","size_leaf_vector":"1"}},{"base_weights":[-3.1118661E-2,1.0715613E-1,-1.2262138E0,-7.705501E-2,7.031611E-1,-1.2927631E0,-2.6463372E-1,-1.2361314E-2,8.8574225E-3,-4.9085744E-2,2.3916872E-2,-3.7899487E-2,-4.92354E-2,5.9050728E-2,-3.884664E-2],"categories":[],"categories_nodes":[],"categories_segments":[],"categories_sizes":[],"default_left":[0,0,0,0,0,0,0,0,0,0,0,0,0,0,0],"id":36,"left_children":[1,3,5,7,9,11,13,-1,-1,-1,-1,-1,-1,-1,-1],"loss_changes":[1.054082E3,6.2775653E2,4.183246E1,5.448651E2,2.9828894E2,3.9801025E0,1.0410104E2,0E0,0E0,0E0,0E0,0E0,0E0,0E0,0E0],"parents":[2147483647,0,0,1,1,2,2,3,3,4,4,5,5,6,6],"right_children":[2,4,6,8,10,12,14,-1,-1,-1,-1,-1,-1,-1,-1],"split_conditions":[1.7129873E-1,7.996553E-1,1.6131175E0,2.7946094E-1,-5.037345E-1,3.3376718E-1,-8.41114E-1,-1.2361314E-2,8.8574225E-3,-4.9085744E-2,2.3916872E-2,-3.7899487E-2,-4.92354E-2,5.9050728E-2,-3.884664E-2],"split_indices":[35,30,20,10,10,22,10,0,0,0,0,0,0,0,0],"split_type":[0,0,0,0,0,0,0,0,0,0,0,0,0,0,0],"sum_hessian":[6.37618E3,5.7156904E3,6.604896E2,4.3667373E3,1.348953E3,6.1731775E2,4.3171883E1,2.298639E3,2.0680984E3,5.1471268E1,1.2974817E3,5.7374036E2,4.357735E1,1.3311873E1,2.9860006E1],"tree_param":{"num_deleted":"0","num_feature":"77","num_nodes":"15","size_leaf_vector":"1"}},{"base_weights":[1.23058325E-2,-3.2785E-1,4.3014243E-1,-5.511007E-1,4.3281108E-1,-6.633701E-2,4.727695E-1,1.9151181E-2,-2.1365536E-2,-8.14241E-3,2.9130992E-2,1.5024394E-2,-6.7903906E-2],"categories":[],"categories_nodes":[],"categories_segments":[],"categories_sizes":[],"default_left":[0,0,0,0,0,0,0,0,0,0,0,0,0],"id":37,"left_children":[1,3,5,7,9,-1,11,-1,-1,-1,-1,-1,-1],"loss_changes":[9.2725037E2,6.1093896E2,3.3052222E2,5.3326E2,3.0978256E2,0E0,2.221156E2,0E0,0E0,0E0,0E0,0E0,0E0],"parents":[2147483647,0,0,1,1,2,2,3,3,4,4,6,6],"right_children":[2,4,6,8,10,-1,12,-1,-1,-1,-1,-1,-1],"split_conditions":[3.3376718E-1,6.311546E-1,-7.483282E-1,-4.539942E-1,-2.16466E-1,-6.633701E-2,4.909149E0,1.9151181E-2,-2.1365536E-2,-8.14241E-3,2.9130992E-2,1.5024394E-2,-6.7903906E-2],"split_indices":[22,31,52,18,47,0,13,0,0,0,0,0,0],"split_type":[0,0,0,0,0,0,0,0,0,0,0,0,0],"sum_hessian":[6.5219146E3,3.5951343E3,2.9267805E3,2.779709E3,8.154252E2,4.5637573E1,2.8811428E3,3.3111453E2,2.4485945E3,3.533726E2,4.620526E2,2.8527585E3,2.838441E1],"tree_param":{"num_deleted":"0","num_feature":"77","num_nodes":"13","size_leaf_vector":"1"}},{"base_weights":[5.2599575E-2,5.9147286E-1,-2.3780255E-1,7.224512E-1,-7.894873E-1,3.6804593E-1,-7.2888523E-1,-5.593099E-2,2.3085799E-2,1.7357334E-2,-5.600468E-2,1.4358366E-2,-5.4368895E-2,-3.031325E-2,7.2430274E-3],"categories":[],"categories_nodes":[],"categories_segments":[],"categories_sizes":[],"default_left":[0,0,0,0,0,0,0,0,0,0,0,0,0,0,0],"id":38,"left_children":[1,3,5,7,9,11,13,-1,-1,-1,-1,-1,-1,-1,-1],"loss_changes":[1.0345171E3,4.1929492E2,1.2783423E3,2.5888794E2,2.973977E2,4.6447702E2,6.48609E2,0E0,0E0,0E0,0E0,0E0,0E0,0E0,0E0],"parents":[2147483647,0,0,1,1,2,2,3,3,4,4,5,5,6,6],"right_children":[2,4,6,8,10,12,14,-1,-1,-1,-1,-1,-1,-1,-1],"split_conditions":[-2.7293727E-1,1.0467223E-1,-6.728507E-1,-3.4932077E-1,-4.9145928E-1,-1.4038284E-2,7.394583E-1,-5.593099E-2,2.3085799E-2,1.7357334E-2,-5.600468E-2,1.4358366E-2,-5.4368895E-2,-3.031325E-2,7.2430274E-3],"split_indices":[44,43,40,54,34,44,22,0,0,0,0,0,0,0,0],"split_type":[0,0,0,0,0,0,0,0,0,0,0,0,0,0,0],"sum_hessian":[6.608633E3,2.31402E3,4.294613E3,2.1140596E3,1.9996056E2,1.9226667E3,2.371946E3,3.705655E1,2.077003E3,8.825685E1,1.11703705E2,1.8306594E3,9.200734E1,1.8385251E3,5.3342084E2],"tree_param":{"num_deleted":"0","num_feature":"77","num_nodes":"15","size_leaf_vector":"1"}},{"base_weights":[3.2098044E-2,-8.497286E-1,1.959798E-1,2.1594122E-1,-1.1546624E0,6.229649E-1,-7.40283E-2,-3.0882224E-2,4.0675268E-2,6.9664707E-3,-3.8808025E-2,-5.218231E-2,2.0990768E-2,1.2601504E-2,-1.7323146E-2],"categories":[],"categories_nodes":[],"categories_segments":[],"categories_sizes":[],"default_left":[0,0,0,0,0,0,0,0,0,0,0,0,0,0,0],"id":39,"left_children":[1,3,5,7,9,11,13,-1,-1,-1,-1,-1,-1,-1,-1],"loss_changes":[9.33798E2,3.294068E2,6.283426E2,3.22339E2,1.5216406E2,3.8379315E2,8.3075226E2,0E0,0E0,0E0,0E0,0E0,0E0,0E0,0E0],"parents":[2147483647,0,0,1,1,2,2,3,3,4,4,5,5,6,6],"right_children":[2,4,6,8,10,12,14,-1,-1,-1,-1,-1,-1,-1,-1],"split_conditions":[-5.037345E-1,-2.2779018E-1,-2.7847168E-1,5.733613E-1,-7.220185E-1,-8.3700746E-1,-5.2495944E-1,-3.0882224E-2,4.0675268E-2,6.9664707E-3,-3.8808025E-2,-5.218231E-2,2.0990768E-2,1.2601504E-2,-1.7323146E-2],"split_indices":[10,0,44,31,12,30,39,0,0,0,0,0,0,0,0],"split_type":[0,0,0,0,0,0,0,0,0,0,0,0,0,0,0],"sum_hessian":[6.4598857E3,1.0116316E3,5.4482544E3,2.2506119E2,7.865704E2,2.1102354E3,3.3380188E3,1.0756021E2,1.1750098E2,7.149723E1,7.150732E2,6.5659454E1,2.044576E3,1.6846062E3,1.6534126E3],"tree_param":{"num_deleted":"0","num_feature":"77","num_nodes":"15","size_leaf_vector":"1"}},{"base_weights":[3.6792494E-2,-8.5824925E-1,1.963221E-1,7.470428E-2,-1.1901456E0,5.8647066E-1,-4.606958E-2,-2.3934823E-2,4.7689952E-2,-3.8650103E-2,-6.407668E-4,2.1822486E-2,-2.1022646E-2,1.22808525E-2,-1.5127684E-2],"categories":[],"categories_nodes":[],"categories_segments":[],"categories_sizes":[],"default_left":[0,0,0,0,0,0,0,0,0,0,0,0,0,0,0],"id":40,"left_children":[1,3,5,7,9,11,13,-1,-1,-1,-1,-1,-1,-1,-1],"loss_changes":[9.272087E2,3.0436823E2,5.2131366E2,3.4320602E2,8.30105E1,3.8374915E2,7.097761E2,0E0,0E0,0E0,0E0,0E0,0E0,0E0,0E0],"parents":[2147483647,0,0,1,1,2,2,3,3,4,4,5,5,6,6],"right_children":[2,4,6,8,10,12,14,-1,-1,-1,-1,-1,-1,-1,-1],"split_conditions":[-5.037345E-1,-4.4369075E-1,-2.7847168E-1,-4.4642714E-1,1.2054719E0,-1.6248263E-1,-5.2495944E-1,-2.3934823E-2,4.7689952E-2,-3.8650103E-2,-6.407668E-4,2.1822486E-2,-2.1022646E-2,1.22808525E-2,-1.5127684E-2],"split_indices":[13,18,44,18,31,48,39,0,0,0,0,0,0,0,0],"split_type":[0,0,0,0,0,0,0,0,0,0,0,0,0,0,0],"sum_hessian":[6.4919937E3,9.813148E2,5.5106787E3,2.5762106E2,7.236937E2,2.111326E3,3.3993528E3,1.6372949E2,9.389157E1,6.6743396E2,5.6259754E1,1.9034221E3,2.0790387E2,1.7047461E3,1.6946067E3],"tree_param":{"num_deleted":"0","num_feature":"77","num_nodes":"15","size_leaf_vector":"1"}},{"base_weights":[5.483632E-2,-8.36638E-1,2.0944935E-1,-1.1381965E0,1.5306666E-1,7.195544E-4,6.105579E-1,-7.3929774E-3,-3.9458733E-2,2.8732244E-2,-4.6438787E-2,5.8096764E-3,-2.2982826E-2,-5.8267407E-2,1.9826954E-2],"categories":[],"categories_nodes":[],"categories_segments":[],"categories_sizes":[],"default_left":[0,0,0,0,0,0,0,0,0,0,0,0,0,0,0],"id":41,"left_children":[1,3,5,7,9,11,13,-1,-1,-1,-1,-1,-1,-1,-1],"loss_changes":[9.0531525E2,2.900025E2,4.6858743E2,1.1705725E2,3.1284003E2,5.4495734E2,2.4734515E2,0E0,0E0,0E0,0E0,0E0,0E0,0E0,0E0],"parents":[2147483647,0,0,1,1,2,2,3,3,4,4,5,5,6,6],"right_children":[2,4,6,8,10,12,14,-1,-1,-1,-1,-1,-1,-1,-1],"split_conditions":[-5.037345E-1,6.311546E-1,3.246617E-1,-6.586294E-1,-2.2755136E-1,-4.821729E-2,-2.9561406E-1,-7.3929774E-3,-3.9458733E-2,2.8732244E-2,-4.6438787E-2,5.8096764E-3,-2.2982826E-2,-5.8267407E-2,1.9826954E-2],"split_indices":[10,31,30,34,0,53,32,0,0,0,0,0,0,0,0],"split_type":[0,0,0,0,0,0,0,0,0,0,0,0,0,0,0],"sum_hessian":[6.5663623E3,9.697691E2,5.5965933E3,7.43254E2,2.2651508E2,3.6818665E3,1.914727E3,1.23636475E2,6.1961755E2,1.5410912E2,7.240596E1,2.9424106E3,7.394556E2,3.6262524E1,1.8784645E3],"tree_param":{"num_deleted":"0","num_feature":"77","num_nodes":"15","size_leaf_vector":"1"}},{"base_weights":[-1.9205356E-3,1.163657E-1,-1.068925E0,-1.381936E-1,4.549671E-1,-1.2569274E0,1.9757555E-1,1.0750354E-2,-1.2778073E-2,-5.900161E-2,1.527822E-2,-3.565625E-2,-4.053725E-2,-1.9455643E-2,5.5575013E-2],"categories":[],"categories_nodes":[],"categories_segments":[],"categories_sizes":[],"default_left":[0,0,0,0,0,0,0,0,0,0,0,0,0,0,0],"id":42,"left_children":[1,3,5,7,9,11,13,-1,-1,-1,-1,-1,-1,-1,-1],"loss_changes":[7.9803076E2,4.906421E2,1.5060046E2,4.644142E2,3.2212146E2,1.6851196E0,1.1663966E2,0E0,0E0,0E0,0E0,0E0,0E0,0E0,0E0],"parents":[2147483647,0,0,1,1,2,2,3,3,4,4,5,5,6,6],"right_children":[2,4,6,8,10,12,14,-1,-1,-1,-1,-1,-1,-1,-1],"split_conditions":[1.7129873E-1,9.4962105E-2,4.2849336E0,-5.228984E-1,-7.483282E-1,-5.037345E-1,3.3987186E0,1.0750354E-2,-1.2778073E-2,-5.900161E-2,1.527822E-2,-3.565625E-2,-4.053725E-2,-1.9455643E-2,5.5575013E-2],"split_indices":[35,17,33,41,52,13,49,0,0,0,0,0,0,0,0],"split_type":[0,0,0,0,0,0,0,0,0,0,0,0,0,0,0],"sum_hessian":[6.320201E3,5.690194E3,6.300076E2,3.2483743E3,2.4418193E3,5.4865106E2,8.135656E1,1.1915675E3,2.0568066E3,5.274455E1,2.389075E3,3.2654294E2,2.2210814E2,5.4196007E1,2.7160553E1],"tree_param":{"num_deleted":"0","num_feature":"77","num_nodes":"15","size_leaf_vector":"1"}},{"base_weights":[2.2205584E-2,-4.371125E-1,2.9794192E-1,7.5275403E-1,-6.7607E-1,-2.8527308E-1,4.1811302E-1,2.9261338E-2,-5.943038E-2,-2.5953056E-2,1.9098649E-2,-3.6291175E-2,1.1564984E-2,-5.5228576E-2,1.3487351E-2],"categories":[],"categories_nodes":[],"categories_segments":[],"categories_sizes":[],"default_left":[0,0,0,0,0,0,0,0,0,0,0,0,0,0,0],"id":43,"left_children":[1,3,5,7,9,11,13,-1,-1,-1,-1,-1,-1,-1,-1],"loss_changes":[8.1163934E2,6.8399615E2,2.8080212E2,2.4675314E2,4.9746704E2,4.2508075E2,2.3675519E2,0E0,0E0,0E0,0E0,0E0,0E0,0E0,0E0],"parents":[2147483647,0,0,1,1,2,2,3,3,4,4,5,5,6,6],"right_children":[2,4,6,8,10,12,14,-1,-1,-1,-1,-1,-1,-1,-1],"split_conditions":[-7.727559E-2,-4.53962E-1,-2.1417212E-1,-6.186475E-1,1.2054719E0,-2.5772363E-1,-1.6733406E0,2.9261338E-2,-5.943038E-2,-2.5953056E-2,1.9098649E-2,-3.6291175E-2,1.1564984E-2,-5.5228576E-2,1.3487351E-2],"split_indices":[22,18,31,16,31,4,34,0,0,0,0,0,0,0,0],"split_type":[0,0,0,0,0,0,0,0,0,0,0,0,0,0,0],"sum_hessian":[6.406569E3,2.4029004E3,4.0036687E3,4.0143307E2,2.0014673E3,6.836361E2,3.3200325E3,3.7183273E2,2.9600351E1,1.7498939E3,2.515733E2,2.8718896E2,3.964471E2,4.4774147E1,3.2752585E3],"tree_param":{"num_deleted":"0","num_feature":"77","num_nodes":"15","size_leaf_vector":"1"}},{"base_weights":[-5.2757625E-2,4.5436588E-1,-3.251103E-1,-5.2093863E-1,5.938058E-1,3.2917458E-1,-6.410244E-1,5.825545E-2,-3.3682633E-2,2.1912282E-2,-2.4804352E-2,-6.270238E-2,1.3162471E-2,-2.4574168E-2,2.328217E-2],"categories":[],"categories_nodes":[],"categories_segments":[],"categories_sizes":[],"default_left":[0,0,0,0,0,0,0,0,0,0,0,0,0,0,0],"id":44,"left_children":[1,3,5,7,9,11,13,-1,-1,-1,-1,-1,-1,-1,-1],"loss_changes":[8.3943097E2,2.8910852E2,8.175674E2,3.9644992E2,3.6124963E2,3.4221667E2,6.73827E2,0E0,0E0,0E0,0E0,0E0,0E0,0E0,0E0],"parents":[2147483647,0,0,1,1,2,2,3,3,4,4,5,5,6,6],"right_children":[2,4,6,8,10,12,14,-1,-1,-1,-1,-1,-1,-1,-1],"split_conditions":[-2.7293727E-1,-3.7245128E-1,-6.7395306E-1,-4.283763E-1,-1.6248263E-1,-7.544606E-1,1.9126863E0,5.825545E-2,-3.3682633E-2,2.1912282E-2,-2.4804352E-2,-6.270238E-2,1.3162471E-2,-2.4574168E-2,2.328217E-2],"split_indices":[44,52,40,20,48,21,22,0,0,0,0,0,0,0,0],"split_type":[0,0,0,0,0,0,0,0,0,0,0,0,0,0,0],"sum_hessian":[6.0757295E3,2.1225269E3,3.953203E3,2.650683E2,1.8574585E3,1.2871168E3,2.6660862E3,5.158328E1,2.13485E2,1.6950247E3,1.6243384E2,5.494821E1,1.2321686E3,2.3688398E3,2.972463E2],"tree_param":{"num_deleted":"0","num_feature":"77","num_nodes":"15","size_leaf_vector":"1"}}]},"name":"gbtree"},"learner_model_param":{"base_score":"[5E-1]","boost_from_average":"1","num_class":"0","num_feature":"77","num_target":"1"},"objective":{"name":"binary:logistic","reg_loss_param":{"scale_pos_weight":"51.6292152"}}},"version":[3,2,0]}